Language model created by QuickLM on Thu Dec  3 02:33:41 EST 2015
Copyright (c) 1996-2010 Carnegie Mellon University and Alexander I. Rudnicky

The model is in standard ARPA format, designed by Doug Paul while he was at MITRE.

The code that was used to produce this language model is available in Open Source.
Please visit http://www.speech.cs.cmu.edu/tools/ for more information

The (fixed) discount mass is 0.5. The backoffs are computed using the ratio method.
This model based on a corpus of 6 sentences and 11 words

\data\
ngram 1=11
ngram 2=15
ngram 3=9

\1-grams:
-0.8451 </s> -0.3010
-0.8451 <s> -0.2341
-1.6232 CALL -0.2341
-1.6232 GOOGLE -0.2341
-1.6232 HEY -0.2906
-1.6232 OKAY -0.2906
-1.6232 SHELL -0.2341
-1.6232 SIRI -0.2341
-1.6232 TEXT -0.2341
-1.6232 VOCAL -0.2906
-1.6232 WEATHER -0.2341

\2-grams:
-1.0792 <s> CALL 0.0000
-1.0792 <s> HEY 0.0000
-1.0792 <s> OKAY 0.0000
-1.0792 <s> TEXT 0.0000
-1.0792 <s> VOCAL 0.0000
-1.0792 <s> WEATHER 0.0000
-0.3010 CALL </s> -0.3010
-0.3010 GOOGLE </s> -0.3010
-0.3010 HEY SIRI 0.0000
-0.3010 OKAY GOOGLE 0.0000
-0.3010 SHELL </s> -0.3010
-0.3010 SIRI </s> -0.3010
-0.3010 TEXT </s> -0.3010
-0.3010 VOCAL SHELL 0.0000
-0.3010 WEATHER </s> -0.3010

\3-grams:
-0.3010 <s> CALL </s>
-0.3010 <s> HEY SIRI
-0.3010 <s> OKAY GOOGLE
-0.3010 <s> TEXT </s>
-0.3010 <s> VOCAL SHELL
-0.3010 <s> WEATHER </s>
-0.3010 HEY SIRI </s>
-0.3010 OKAY GOOGLE </s>
-0.3010 VOCAL SHELL </s>

\end\
