Language model created by QuickLM on Sat Dec 26 05:32:27 EST 2015
Copyright (c) 1996-2010 Carnegie Mellon University and Alexander I. Rudnicky

The model is in standard ARPA format, designed by Doug Paul while he was at MITRE.

The code that was used to produce this language model is available in Open Source.
Please visit http://www.speech.cs.cmu.edu/tools/ for more information

The (fixed) discount mass is 0.5. The backoffs are computed using the ratio method.
This model based on a corpus of 3 sentences and 5 words

\data\
ngram 1=5
ngram 2=6
ngram 3=3

\1-grams:
-0.7782 </s> -0.3010
-0.7782 <s> -0.2218
-1.2553 MUSIC -0.2218
-1.2553 NOTIFICATION -0.2218
-1.2553 TIME -0.2218

\2-grams:
-0.7782 <s> MUSIC 0.0000
-0.7782 <s> NOTIFICATION 0.0000
-0.7782 <s> TIME 0.0000
-0.3010 MUSIC </s> -0.3010
-0.3010 NOTIFICATION </s> -0.3010
-0.3010 TIME </s> -0.3010

\3-grams:
-0.3010 <s> MUSIC </s>
-0.3010 <s> NOTIFICATION </s>
-0.3010 <s> TIME </s>

\end\
